digraph Tree {
node [shape=box] ;
0 [label="Petal.Length <= 2.45\nentropy = 1.585\nsamples = 109\nvalue = [37, 36, 36]"] ;
1 [label="entropy = 0.0\nsamples = 37\nvalue = [37, 0, 0]"] ;
0 -> 1 [labeldistance=2.5, labelangle=45, headlabel="True"] ;
2 [label="Petal.Width <= 1.75\nentropy = 1.0\nsamples = 72\nvalue = [0, 36, 36]"] ;
0 -> 2 [labeldistance=2.5, labelangle=-45, headlabel="False"] ;
3 [label="Petal.Length <= 4.95\nentropy = 0.303\nsamples = 37\nvalue = [0, 35, 2]"] ;
2 -> 3 ;
4 [label="entropy = 0.0\nsamples = 33\nvalue = [0, 33, 0]"] ;
3 -> 4 ;
5 [label="entropy = 1.0\nsamples = 4\nvalue = [0, 2, 2]"] ;
3 -> 5 ;
6 [label="Petal.Length <= 4.85\nentropy = 0.187\nsamples = 35\nvalue = [0, 1, 34]"] ;
2 -> 6 ;
7 [label="entropy = 1.0\nsamples = 2\nvalue = [0, 1, 1]"] ;
6 -> 7 ;
8 [label="entropy = 0.0\nsamples = 33\nvalue = [0, 0, 33]"] ;
6 -> 8 ;
}